Language model created by QuickLM on Mon Apr 22 08:10:39 EDT 2019
Copyright (c) 1996-2010 Carnegie Mellon University and Alexander I. Rudnicky

The model is in standard ARPA format, designed by Doug Paul while he was at MITRE.

The code that was used to produce this language model is available in Open Source.
Please visit http://www.speech.cs.cmu.edu/tools/ for more information

The (fixed) discount mass is 0.5. The backoffs are computed using the ratio method.
This model based on a corpus of 34 sentences and 36 words

\data\
ngram 1=36
ngram 2=68
ngram 3=34

\1-grams:
-0.7782 </s> -0.3010
-0.7782 <s> -0.2218
-2.3096 上走 -0.2218
-2.3096 下走 -0.2218
-2.3096 出去 -0.2218
-2.3096 前进 -0.2218
-2.3096 去会议室 -0.2218
-2.3096 去前门 -0.2218
-2.3096 去另一个实验室 -0.2218
-2.3096 去张老师办公室 -0.2218
-2.3096 去电梯间 -0.2218
-2.3096 去黄老师办公室 -0.2218
-2.3096 后走 -0.2218
-2.3096 后退 -0.2218
-2.3096 向前 -0.2218
-2.3096 向前走 -0.2218
-2.3096 向右走 -0.2218
-2.3096 向右转 -0.2218
-2.3096 向左走 -0.2218
-2.3096 向左转 -0.2218
-2.3096 启动声音识别功能 -0.2218
-2.3096 回到原点 -0.2218
-2.3096 回来 -0.2218
-2.3096 往前 -0.2218
-2.3096 往前走 -0.2218
-2.3096 往右走 -0.2218
-2.3096 往右转 -0.2218
-2.3096 往左走 -0.2218
-2.3096 往左转 -0.2218
-2.3096 朝前 -0.2218
-2.3096 朝前走 -0.2218
-2.3096 朝右走 -0.2218
-2.3096 朝右转 -0.2218
-2.3096 朝左走 -0.2218
-2.3096 朝左转 -0.2218
-2.3096 退出程序 -0.2218

\2-grams:
-1.8325 <s> 上走 0.0000
-1.8325 <s> 下走 0.0000
-1.8325 <s> 出去 0.0000
-1.8325 <s> 前进 0.0000
-1.8325 <s> 去会议室 0.0000
-1.8325 <s> 去前门 0.0000
-1.8325 <s> 去另一个实验室 0.0000
-1.8325 <s> 去张老师办公室 0.0000
-1.8325 <s> 去电梯间 0.0000
-1.8325 <s> 去黄老师办公室 0.0000
-1.8325 <s> 后走 0.0000
-1.8325 <s> 后退 0.0000
-1.8325 <s> 向前 0.0000
-1.8325 <s> 向前走 0.0000
-1.8325 <s> 向右走 0.0000
-1.8325 <s> 向右转 0.0000
-1.8325 <s> 向左走 0.0000
-1.8325 <s> 向左转 0.0000
-1.8325 <s> 启动声音识别功能 0.0000
-1.8325 <s> 回到原点 0.0000
-1.8325 <s> 回来 0.0000
-1.8325 <s> 往前 0.0000
-1.8325 <s> 往前走 0.0000
-1.8325 <s> 往右走 0.0000
-1.8325 <s> 往右转 0.0000
-1.8325 <s> 往左走 0.0000
-1.8325 <s> 往左转 0.0000
-1.8325 <s> 朝前 0.0000
-1.8325 <s> 朝前走 0.0000
-1.8325 <s> 朝右走 0.0000
-1.8325 <s> 朝右转 0.0000
-1.8325 <s> 朝左走 0.0000
-1.8325 <s> 朝左转 0.0000
-1.8325 <s> 退出程序 0.0000
-0.3010 上走 </s> -0.3010
-0.3010 下走 </s> -0.3010
-0.3010 出去 </s> -0.3010
-0.3010 前进 </s> -0.3010
-0.3010 去会议室 </s> -0.3010
-0.3010 去前门 </s> -0.3010
-0.3010 去另一个实验室 </s> -0.3010
-0.3010 去张老师办公室 </s> -0.3010
-0.3010 去电梯间 </s> -0.3010
-0.3010 去黄老师办公室 </s> -0.3010
-0.3010 后走 </s> -0.3010
-0.3010 后退 </s> -0.3010
-0.3010 向前 </s> -0.3010
-0.3010 向前走 </s> -0.3010
-0.3010 向右走 </s> -0.3010
-0.3010 向右转 </s> -0.3010
-0.3010 向左走 </s> -0.3010
-0.3010 向左转 </s> -0.3010
-0.3010 启动声音识别功能 </s> -0.3010
-0.3010 回到原点 </s> -0.3010
-0.3010 回来 </s> -0.3010
-0.3010 往前 </s> -0.3010
-0.3010 往前走 </s> -0.3010
-0.3010 往右走 </s> -0.3010
-0.3010 往右转 </s> -0.3010
-0.3010 往左走 </s> -0.3010
-0.3010 往左转 </s> -0.3010
-0.3010 朝前 </s> -0.3010
-0.3010 朝前走 </s> -0.3010
-0.3010 朝右走 </s> -0.3010
-0.3010 朝右转 </s> -0.3010
-0.3010 朝左走 </s> -0.3010
-0.3010 朝左转 </s> -0.3010
-0.3010 退出程序 </s> -0.3010

\3-grams:
-0.3010 <s> 上走 </s>
-0.3010 <s> 下走 </s>
-0.3010 <s> 出去 </s>
-0.3010 <s> 前进 </s>
-0.3010 <s> 去会议室 </s>
-0.3010 <s> 去前门 </s>
-0.3010 <s> 去另一个实验室 </s>
-0.3010 <s> 去张老师办公室 </s>
-0.3010 <s> 去电梯间 </s>
-0.3010 <s> 去黄老师办公室 </s>
-0.3010 <s> 后走 </s>
-0.3010 <s> 后退 </s>
-0.3010 <s> 向前 </s>
-0.3010 <s> 向前走 </s>
-0.3010 <s> 向右走 </s>
-0.3010 <s> 向右转 </s>
-0.3010 <s> 向左走 </s>
-0.3010 <s> 向左转 </s>
-0.3010 <s> 启动声音识别功能 </s>
-0.3010 <s> 回到原点 </s>
-0.3010 <s> 回来 </s>
-0.3010 <s> 往前 </s>
-0.3010 <s> 往前走 </s>
-0.3010 <s> 往右走 </s>
-0.3010 <s> 往右转 </s>
-0.3010 <s> 往左走 </s>
-0.3010 <s> 往左转 </s>
-0.3010 <s> 朝前 </s>
-0.3010 <s> 朝前走 </s>
-0.3010 <s> 朝右走 </s>
-0.3010 <s> 朝右转 </s>
-0.3010 <s> 朝左走 </s>
-0.3010 <s> 朝左转 </s>
-0.3010 <s> 退出程序 </s>

\end\
